go 0.13893 -0.019056 -0.33891 0.12151 0.36523 -0.17391 -0.026735 -0.050335 0.24743 2.4531 -0.42113 0.23632 0.20513 -0.010937 -0.1148 -0.037648 -0.1344 0.86124 -0.35803 0.092525 0.28075 0.13649 0.20819 0.060206 -0.18229 0.10172 -0.132 -0.31598 0.22241 -0.19076 -0.010884 0.16988 0.0080345 0.13337 0.17724 -0.19162 0.33681 0.30186 0.061654 0.0076906 -0.54406 0.050142 -0.043115 -0.26241 0.047462 0.3367 -0.28649 -0.27414 0.026776 -0.065939 0.11021 0.28869 0.46712 0.12063 0.33831 -0.00030427 -0.12116 -0.159 -0.10514 -0.03856 -0.062205 0.035631 -0.17852 -0.13308 0.26103 -0.11082 -0.27463 0.18556 0.45257 0.30336 0.061801 0.07731 0.34645 0.0036526 0.46815 0.020228 -0.025509 -0.019465 -0.0053998 0.086497 -0.053099 -0.086426 -0.46913 0.065788 -0.1272 -0.24254 0.24149 -0.37684 0.65707 0.14106 -0.2108 0.11095 0.12741 -0.28938 -0.075295 0.044109 0.05428 -0.29666 0.016423 0.044086 0.072862 -0.30149 0.034613 0.086731 0.31091 -0.37156 0.17382 0.21996 0.060312 0.16767 0.038469 -0.63231 0.32331 0.10421 0.2508 0.26267 0.17882 -0.24515 -0.17214 0.28319 0.065598 -0.044386 0.037064 0.045018 0.39367 -0.1358 -0.046021 0.2326 0.034156 0.084838 0.038056 -0.0034659 -0.068177 0.082606 0.15811 -0.19388 0.061247 -0.34282 -0.23392 0.091131 -2.0934 0.13815 0.17597 -0.38005 0.2469 -0.22482 -0.059415 0.42415 -0.13768 -0.064184 -0.06323 0.10228 0.039662 -0.2891 0.080242 -0.42854 0.10474 -0.1407 -0.05042 -0.13486 -0.13077 -0.1156 -0.37648 0.014467 0.0284 -0.14921 0.29029 -0.099163 0.22967 0.049717 -0.24345 0.027722 0.074055 -0.42579 0.16724 0.065469 0.077571 0.21529 -0.07133 -0.052742 0.1208 -0.056503 -0.35852 -0.085641 0.53364 0.18189 -0.17887 -0.201 0.43655 0.17912 0.022238 -0.048491 -0.088347 -0.17544 -0.17052 0.27578 -0.27629 -0.05603 0.30416 0.45115 0.06844 -0.15926 -0.27197 -0.022628 0.34567 -0.088622 0.19358 -0.041653 0.41661 0.10848 -0.069752 -0.23749 -0.18511 0.0088535 -0.12773 -0.082802 0.045794 0.33554 -0.30644 0.44171 0.15975 -0.012756 -0.26972 -0.078977 -0.048264 -0.065962 -0.30006 0.1044 -0.12715 -0.014488 -0.35107 -0.11407 0.66343 0.16589 0.01504 -0.0083249 0.013835 -0.196 -0.03613 0.20337 0.11822 0.1476 -0.039074 0.24619 -0.09628 -0.22719 -0.22597 0.19236 -0.41362 0.37821 0.28114 -0.078232 -0.24852 0.084978 0.4568 0.47818 -0.072192 -0.22441 -0.25713 0.1182 0.18028 0.51181 0.40904 -0.24304 0.4909 -0.39707 -0.051963 0.017818 0.2516 0.2829 0.22776 -0.25844 0.14281 -0.072607 0.15194 0.25309 0.047232 0.25905 -0.093313 0.11226 -0.17449 -0.34896 -0.20145 0.11628 -0.10769 -0.078528 0.093096 -0.16539 0.043994 0.059698 -0.13047 0.072147 0.0033663 -0.18181 0.031465 -0.035351 -0.0047912 0.092753 0.28618 0.13646
pad 0.32351 0.35554 0.029381 0.15276 -0.14915 0.22169 0.007907 -0.61286 0.24625 0.094113 0.23543 0.0077078 -0.10253 0.1342 -0.1234 -0.20679 0.71089 2.4675 -0.30985 0.32351 -0.43783 0.69264 0.21104 0.045124 0.3225 0.093387 -0.52472 -0.054388 -0.25587 -0.12808 -0.10193 0.55647 -0.21787 -0.071954 0.15808 0.48927 -0.25542 -0.18073 -0.24778 -0.69312 0.39374 0.4392 0.20021 -0.71491 -0.30525 0.17553 -0.2871 0.11219 -0.36324 0.077624 0.18352 0.060227 0.062115 0.37142 0.037732 -0.3535 0.01102 -0.032563 -0.070029 0.30013 0.20326 0.47044 0.33044 0.36134 0.27908 -0.47339 -0.25386 0.36021 0.3737 0.012692 -0.055809 -0.34704 -0.18589 -0.20169 -0.3782 0.0069795 0.26909 -0.12459 0.0088741 -0.33495 0.29353 0.1753 -0.53418 -0.029426 -0.12315 0.47674 0.89313 0.99509 0.45609 0.16258 0.124 0.036294 -0.26972 0.072856 -0.63344 -0.36145 -0.28031 -0.18044 -0.21866 0.21885 0.24972 -0.096322 0.093722 0.4195 0.15451 -1.0146 -0.077458 0.45177 0.15445 -0.29454 -0.060185 -0.3185 0.61363 0.024889 -0.025345 -0.10452 -0.21572 -0.13676 -0.16929 -0.013994 0.056424 -0.085576 0.22215 0.39955 0.02537 0.074138 -0.25017 0.34507 0.59987 -0.090828 -0.22895 -0.54831 -0.45305 0.26379 -0.23597 -0.23778 -0.081281 0.43114 -0.0856 -0.48885 -1.663 -0.040131 -0.16715 0.3253 0.29026 0.28792 0.2344 -0.10837 0.49829 -0.26069 -0.30692 -0.15513 0.14784 0.072879 0.19315 -0.22354 -0.34461 0.39198 -0.048036 -0.33415 0.48077 -0.041817 0.2898 -0.077867 -0.062811 -0.85296 -0.00083695 -0.055111 0.51864 -0.45304 -0.13665 -0.036674 -0.80609 -0.023537 -0.13069 -0.012313 -0.1006 0.69227 -0.36057 -0.00059197 -0.40841 -0.34719 -0.071257 -0.13566 0.61474 -0.41201 -0.17609 0.21731 -0.31567 -0.086116 -0.77118 0.17502 -0.20781 0.26764 0.21317 -0.45749 0.23844 -0.014145 -0.16221 -0.43012 0.37782 -0.003554 0.34699 -0.022153 0.97797 -0.19061 -0.32179 -0.39354 -0.5373 0.17447 0.13914 0.15377 -0.016223 -0.45809 0.38081 0.17707 -0.45265 0.21123 -0.20921 -0.14937 0.31082 0.30977 -0.22888 0.0081126 -0.16236 -0.024111 0.34873 -0.41532 0.34825 0.040598 0.25892 -0.056403 0.61087 -0.25996 0.20738 0.11855 0.57708 0.15941 0.89589 -0.15097 0.044485 -0.01274 -0.015386 0.69524 -0.13008 -0.25311 -0.12435 -0.52532 0.24424 0.36223 -0.096884 -0.78978 -0.2531 0.29462 -0.39225 0.73006 0.091886 0.38869 -0.25772 0.78611 0.56822 -0.062148 -0.38597 -0.67125 0.0018804 0.60966 -0.17114 -0.051626 0.166 0.084078 0.33751 0.24668 -0.12396 0.38629 -0.21927 -0.29036 0.36863 -0.28976 -0.71288 -0.20506 0.064023 -0.37712 0.45039 0.35213 -0.24374 -0.73577 -0.15995 0.051732 -0.27145 -0.30058 0.11234 0.075721 0.28935 -0.25125 0.0052013 -0.06005 -0.18023 0.34562 0.27767 -0.078111
eos -0.12912 -0.14832 0.49135 -0.90693 0.90968 -0.16319 -0.53108 0.49917 -0.15805 -1.3934 -0.28115 -0.33366 0.39508 -0.18333 0.0026969 0.26076 -0.3579 0.66834 -0.041952 0.22833 0.2535 0.062419 0.16532 -0.1234 -0.30856 0.39618 -0.54655 -0.59463 0.43078 0.66099 -0.060693 -0.22464 0.027814 0.251 -0.54046 0.13942 -0.02481 -1.0147 0.10478 -0.62672 -0.26168 -0.039434 -0.26515 0.73233 -0.68944 0.088576 0.16921 0.094941 -0.40479 0.092979 0.28276 -0.49256 -0.68241 0.13016 0.69433 -0.58681 -0.49326 -0.10645 -0.22076 0.091871 -0.1295 0.099102 -0.031842 -0.38556 0.37126 -0.3251 -0.015824 0.5716 -0.66344 -0.66478 -0.17655 0.40497 -0.72065 0.046855 0.59004 -0.10659 0.34578 0.50598 -0.48595 -0.58578 0.011735 0.59449 0.79182 0.95972 -0.091922 -0.33031 0.77114 -0.33189 0.38606 0.037939 -0.2172 -0.63295 0.37592 -0.75394 0.62783 0.0079468 0.42973 0.73415 -0.46873 -0.0020675 -0.16091 0.25756 -0.5222 -0.16034 -0.37474 -0.94526 0.447 0.19647 0.10031 -0.4553 0.092371 -0.096672 -0.25037 -0.33915 0.20606 -0.07526 -0.12665 -0.31012 0.39234 -0.35216 0.14992 0.57988 0.18597 -0.16376 -0.070725 0.60998 -0.21206 -0.086751 -0.26553 0.22426 0.36957 -0.33988 0.031914 -0.15428 -0.15158 -0.0077465 -0.13322 0.38896 -0.45874 -0.66419 -1.1068 0.10125 0.32957 0.48207 0.68838 0.24086 -0.19115 0.40416 -0.63185 -0.21004 0.5455 -0.28656 -0.30122 0.0051871 0.0070709 -0.050795 0.021866 -0.15633 0.026125 0.17869 0.003854 0.60723 0.33402 -0.28881 0.78154 -0.73988 -0.60028 0.16592 -0.57427 0.12742 0.39804 -0.11519 0.51449 0.37172 -0.2522 -0.11673 0.099025 -0.069399 0.40651 -0.20992 -0.090222 -0.34432 -0.090978 -0.37388 1.013 -0.40586 -0.094282 0.74568 0.54854 0.19069 -0.5356 -0.12598 -0.13262 0.3999 -0.055364 -0.7291 -0.098098 -0.50425 0.71758 0.015487 -0.2852 0.41207 -0.089129 0.12909 -0.71522 -0.55338 -0.37621 -0.32616 0.0017283 -0.36941 0.35493 0.18743 -0.15287 -0.17405 -0.32269 -0.23212 0.2511 0.47654 -0.38967 -0.23353 0.32204 -0.19273 -0.31007 0.36533 -0.7422 0.093626 -0.4156 0.099346 0.46952 0.24947 -0.78975 -0.69342 -0.28082 -0.12368 -0.26201 -0.39502 -0.37421 -0.081371 0.32108 0.23444 1.1184 -0.57222 -0.053232 -0.46302 -0.27081 0.3993 0.35606 0.21537 -0.13635 0.20139 -0.19286 0.17693 0.2376 -1.0716 0.18683 0.0026337 -0.42772 0.8431 -0.0097824 -0.62784 0.13438 -0.25502 -0.19876 -0.87394 -0.074848 -0.64598 0.021868 -0.078084 -0.3587 -0.50157 -0.84228 0.2665 -0.37512 0.47085 0.23722 0.5368 -0.55074 -0.22375 0.37169 -0.67269 -0.57341 0.66491 0.044966 -0.27607 -0.24599 0.097906 0.18611 0.2689 0.12587 0.2006 -0.92374 0.19116 0.22311 -0.77695 0.089875 -0.44005 -0.81353 0.66592 -0.064267 -0.5196
unk 0.17553 -0.0074395 0.092882 -0.076612 0.56649 0.15109 -0.67134 -0.58276 -0.31681 -0.93629 -0.6183 0.46987 -0.15702 0.51156 -0.010176 0.1434 0.033517 -0.079464 0.13848 0.55967 0.29872 0.24773 -0.21867 -0.35342 0.17021 -0.6321 0.23496 0.16986 0.11746 0.23627 0.84015 -0.20146 -0.20106 0.16114 -0.18456 0.21923 0.63756 0.41057 0.41407 0.044091 0.48614 0.19299 -0.081427 -0.15829 0.54274 -0.173 0.5954 0.18037 -0.15706 0.30375 -0.50211 -0.067893 -0.19793 -0.19868 -0.13361 -0.2513 0.13438 -0.27786 -0.41394 -0.46328 0.19666 0.26616 0.56522 0.10222 -0.16983 0.6818 -0.73191 -0.22701 -0.12444 -0.63024 -0.74501 0.34504 -0.052355 -0.054963 0.60961 -0.17351 -0.26861 0.25264 0.13662 -0.87695 0.69312 -0.19699 -0.5803 0.47883 -0.021557 0.11882 1.5156 -0.89292 -0.07947 -0.76433 -0.20491 -0.33748 -0.10016 -0.27881 0.10479 -0.33839 0.13927 0.25413 -0.24172 -0.020233 -0.76147 -0.14876 0.076594 0.17507 -0.14006 -0.0064124 0.25172 0.32919 0.12881 0.33062 0.35721 0.24537 -0.23518 0.11114 0.19607 0.44216 -0.03355 0.32777 -0.53387 0.021176 -0.39032 -0.23469 0.15491 -0.22429 -0.16742 0.26994 -0.32943 -0.72316 0.5188 -0.50353 0.56807 0.12232 0.30629 -0.34471 0.013129 -0.37657 0.045618 -0.049168 0.24664 -0.48789 -0.2454 0.37609 0.021427 0.21916 0.56301 0.056961 0.57655 0.78001 -0.67705 0.42361 -0.52872 -0.38404 0.90643 -0.35194 0.11977 -0.67174 -0.19287 -0.52639 0.39966 -0.64545 -0.44841 -0.11671 0.025113 0.2058 -0.15109 -0.28672 -0.32 0.60509 0.019304 0.42 -0.2765 -0.65612 -0.39164 -0.034412 0.032734 -0.53413 -0.6606 0.24033 -0.21975 0.17565 0.081232 -0.34607 0.58146 -0.26727 -0.35631 0.51867 0.10913 -0.097962 -0.012115 -0.5345 0.22746 0.31447 -0.40517 -0.48446 0.35149 -0.091234 0.090081 -0.29133 0.61107 -0.16088 0.19161 0.043516 0.18454 -0.44099 -0.27306 -0.29558 -0.23007 -0.14854 0.14555 0.42553 -0.14023 0.39117 -0.074738 -0.27297 -0.26188 -0.66625 0.35895 0.28534 0.13221 0.16399 -0.15828 -0.17221 -0.020707 -0.46994 0.33846 -0.17403 0.17311 -0.3968 -0.14616 -0.19051 0.27703 -0.43 0.047175 0.27724 0.0095394 -0.27901 -0.71066 -0.063689 0.071288 -0.087045 0.29673 0.20637 -0.0029008 0.39084 -0.35911 0.39549 -0.49281 0.38196 0.071203 -0.23128 -0.032937 0.28617 -0.41133 0.21532 -0.15994 -0.796 -0.010121 -1.009 -0.30322 0.20684 -0.89824 0.14366 0.53918 -0.10082 -0.15712 -0.06557 0.40748 0.32719 -0.49795 0.462 -0.307 -0.016226 0.32466 -0.1094 0.33125 -0.12373 -0.076047 -0.22446 -0.32389 -0.44283 -0.048356 -0.43099 -0.041855 -0.11328 0.030166 -0.19968 -0.0085698 0.60487 -0.0037195 0.12303 0.34711 -0.17742 0.31673 0.4114 -0.092755 -0.15842 -0.38786 0.087827 -0.14061 -0.55315
